function [y1] = myNeuralNetworkFunction(x1)
%MYNEURALNETWORKFUNCTION neural network simulation function.
%
% Generated by Neural Network Toolbox function genFunction, 26-Apr-2017 14:43:58.
% 
% [y1] = myNeuralNetworkFunction(x1) takes these arguments:
%   x = 23xQ matrix, input #1
% and returns:
%   y = 58xQ matrix, output #1
% where Q is the number of samples.

%#ok<*RPMT0>

  % ===== NEURAL NETWORK CONSTANTS =====
  
  % Input 1
  x1_step1_xoffset = [0.484683754296201;0.487352756620511;0.487086986717756;0.483658593776019;0.485082517818174;0.486443308685673;0.484462528742747;0.485018009704751;0.487692838601126;0.487597194712787;0.487029323967711;0.487503271678938;0.485545174917286;0.471732685603712;0.494392187844342;0.485081693801357;0.492114963243245;0.492909437455652;0.493926460962022;0.493098778741099;0.487113449438212;0.485514700798988;0.485811134660076];
  x1_step1_gain = [81.0888354803436;99.6485640084906;87.6920552940491;70.9380841013225;86.7236099798743;82.9686205132338;80.3335082050168;73.5562601027841;86.4630851819967;79.4041331631231;77.0969838048984;90.5030917424018;75.8098409860658;42.9293593632587;90.5884488032726;103.199341117918;92.175032298607;57.0248842564477;84.5046386070809;85.0440768244503;114.949663972606;77.6968874079776;77.3281295713677];
  x1_step1_ymin = -1;
  
  % Layer 1
  b1 = [-1.1448614721134973138;-1.0909073442137273702;-1.1458288021428275627;0.96158568380976550127;-1.5643995908922303517;-1.4236061413285150401;1.3020070016628657594;-0.57131175845518289425;1.266118425689858773;-0.73390446749920856817;0.31462635165510205448;1.3489478230229208222;0.49227321808813268023;0.69306627271840848259;1.1747491395550224702;-1.2716381935518883406;0.077955207079591817831;0.080419004297104884627;-0.95321092504135274126;0.0063823061201980502144;-0.37814995061249395691;0.88358535523098780118;-0.49056756065335022088;-0.091235507595007730997;0.7836218059233223121;0.0049679196350066855831;-0.11744463728456605578;-0.39449958646309857269;-0.58713090981513782474;-0.5213407129245906102;-1.3021695094477405696;-0.076104217416391062301;0.79949136210241977807;-0.34541454919876740659;0.44975602661148106343;-1.1020382146458462813;-0.20577104498512230335;0.75728121351025079466;1.1759522434165530225;1.3663459660635079995;1.4664881005014422932;-1.3805257354208400056;-1.3717700684307372327;-1.3539088602797682004;1.5424104751202185604];
  IW1_1 = [0.63468810315491075436 0.36957806073520754753 -0.29917754127639245576 0.47355477613679980431 0.39838988902714983498 -1.0100999154642968936 0.38838238169479688544 -0.10497332449058403847 0.48283518769456207353 -0.17113706043209503393 0.19959795363749743835 0.51531084852360065085 -0.7350717032849746202 0.45734564285561141173 0.23754472560394562786 1.267376253500699157 0.27937173739991494337 -0.72103959347023982573 0.98081726688263315417 0.077032896726965782719 -0.32658482441195246793 0.098139375231267755861 0.15920807572350550996;0.8637722486129165711 -0.17560309441688129461 -0.21732506456862504818 -0.23184225575428984989 -0.39976123444149463948 -0.13132174506282670579 1.5017929882513427753 -0.038985941377598767876 -0.021523339000719159814 0.41340995148041226326 -0.06264021926135052154 -0.088812130602240343946 -0.5170810398865433033 0.24684171237130203558 -0.22161443982694759014 -0.069968183876673750721 0.6061835184230082163 -0.065338017853637284094 -0.060330428503795413553 -0.27839954546351391995 -0.073940644565940905064 0.07399799073644389158 -0.7748475440847046869;0.95831460799807133277 0.76684835787053762246 0.036226730986967783932 -0.5509727991975019723 -0.28112081777942010685 0.68610026051146300041 -0.2402276532424048594 0.12848370994379459953 0.23312684336025746301 0.31558592467357887701 -0.15440482522890425221 0.80622702832201686984 -0.94503992398358005467 0.74706549584962278487 -0.034720677605692494561 -0.73320130129947491682 -0.25806176554283899449 -0.7447004763623362722 0.94710626903443917435 -1.0350969338934483677 1.0776498234964693168 -0.3205117894382756849 0.12377039020176798523;-0.28337357643277133468 0.13196481382044489283 0.09330978834802960975 0.62828450663304180601 0.65496661229044661479 -0.52801862100274687961 -0.24381142871347813439 0.30689220750385498571 -0.020486778216382513229 0.23778231126173196563 -0.49580333442866642013 -0.47573142121654138359 0.110134921462959251 0.30967081705114851697 -0.07021514639869688712 0.63116399001975587169 0.11209391105549115775 -0.17086099265855286822 0.79571850227693452506 -0.17467046658571613871 0.69815532665124746536 0.10809365204263345073 0.77316705720856049311;0.26311035266447757586 0.15244930669373521481 0.20189733859989195119 0.46909313624123250008 -0.13590098587761548221 0.22915342511782024748 -0.40749426368578023361 0.09716663354666420227 -0.10951055793167745189 0.3990292694684601793 -0.53525987076914260943 -0.11847369052069041395 0.40460045134052569082 0.64306730651778332142 -0.17451914134179977167 -0.4470369109568894106 -0.032722081727821698827 0.00065523956075609623984 0.54813351847220381785 -0.40156873007415733179 -0.21256308513665220228 -0.3922672022168000594 0.25693166032994263492;0.029527903886721391935 0.012115754742101461292 -0.24576791150018784116 -0.3701851868034896631 0.41380254052014747712 -0.60151460477448048803 0.51649769320136185158 -0.43732466674545628083 -0.27253433223243744843 -0.84420623318831911064 1.1935646088365279294 0.33240729987504546994 -0.61083426428586529155 0.27316521650999120441 0.20560762027582815681 0.050382824979654017294 0.97279441958808265944 0.034961795298343444072 -0.093546501460396419558 0.13942157508615463102 0.69869634163440552665 -0.09973981632031607425 -0.38840965293400470104;0.0059547175487021219292 -0.69462951041485254677 0.10514657818406809853 -0.016874826254288290833 -0.22956383133382335382 -0.18638731421512924613 0.0051033804984492066315 -0.29573241116692228214 0.24554200732139494501 -0.94105259301839117025 -0.58020147122336829248 0.1579362563746041781 -0.075566789728867239662 -0.29317415826913711951 0.44566224316846264619 -1.28717329971075789 -0.10159933781965183042 -0.91715591693376363747 -1.2433152211614104665 0.4614378908662934986 0.03799747432211796061 -0.16640673070086600682 -0.11258591283428692753;0.61488154960156038431 0.28397052740615974509 0.1581196992650295563 -0.16591015878070652922 -0.74457413716786835511 -0.083121981942090750195 0.068630440358309285909 0.13560790360885766059 -0.039994481385905562842 0.63227112048741274108 -0.32740192999954609299 0.17828176818393864922 0.31889396611367065715 -0.82061684832503833942 0.51004369110728520198 0.13917990300579569096 -0.092145791130918253131 0.13978618039443424514 -0.1910335934175123318 -0.51612697612453317664 -0.49468711420149014124 -1.12314999651934877 -0.15234279833190730868;-0.37762587572623118604 -0.18329348431392095131 0.34348339886693679546 -0.86490798241627353526 -0.16356240053495005315 0.43610092104207887065 0.29874178586121991064 0.90092226954897569602 -0.054687362178857362727 0.13914567641777014773 -0.85619072059073442205 -0.1090796274073014549 -0.20021163917228396167 1.0125543400815004702 -0.004470188608686580245 0.11058700089146784873 0.35552724486676540172 -0.0015910771613979746153 0.66609879062815680051 -0.73365242688314280528 -1.8383540738789345692 -0.017261691777628665467 -0.92318036784862000932;0.4353963194941907755 -0.5541067594994198986 0.39166730523207976544 -0.31594272700700687384 0.68690765656480334833 -0.46296396069518958027 0.35562567818940876707 -0.19088363207555228418 -0.85534876125337411246 -0.52164350151901173192 -0.43471631525407278263 -0.74561750446360264277 0.001981334264671313905 -0.18384027219724852209 -0.072644710047680693954 -0.56732108707627582067 0.14912450724346199005 0.45498974725818225329 -0.14371443521508336927 -0.57647795848447769274 0.3018750220134109874 0.11663121674904088076 0.5902577464062461754;-0.21669774408350411798 0.20045694998769633677 0.17456910259762575821 0.51685230431569240128 0.77593407246108125896 -0.40400854287631204897 0.60996297082059836026 -0.65322936890807481447 0.25518109574275538165 0.21297520730037733383 -0.4951393987564277066 -0.46034250964757755797 -0.20512453900697388831 -0.50227777889046076876 0.30577577595458443893 0.81217555323990442417 -0.33762769060514025155 0.59424145530005578753 0.37013958347476128008 -0.57802277134266555336 -1.5783120014838616374 -0.25683538056844035236 -0.11708974937387761628;0.055289932090842569545 -0.57951626911195053271 -0.54998728514337535955 -0.37636152715940157654 -0.91086115265802225505 0.15178494720062427059 -0.25655841783769511855 -0.94124868074939960216 0.66186848247329588268 0.82914306602086296216 0.0093882247073686156402 -0.031240627957306581208 -0.39570915018860219892 -0.11998097035732380178 0.33710860813704840444 1.3856556710203526972 0.28717669659849082153 1.3187563199930223412 0.71321626425568795948 -0.38550109899457174478 -0.29518593540007154186 0.21885520620115256341 -0.063573557607651057233;0.62589446238927315402 -0.28405335128828257396 -0.25616583309649415545 0.12180432085387840613 0.90430309918520312973 0.24203663927482724216 0.66787645589973088089 -0.39637196891832127132 0.47153968475466540022 0.22913945990751988235 0.34402997287510284075 -0.41455536415611649037 0.34129157269753712667 1.0811381187748154709 0.30010427257662292133 1.487699799118377797 -0.2142414713900027412 0.42618052948017681736 -0.25908359619617560288 1.4219085978618060118 -1.1970444168584852829 -0.6166637084283140835 0.59687337345313384862;-0.34064384035725875366 -0.7252516940273014967 0.27673916335538745193 0.37858412828981724552 0.67536304844100891742 -0.52921441418364356668 0.65819902488035475496 -0.56924724660279646393 0.45046480111661707513 0.072909430385285578513 -0.61319914523103546955 -0.27881526453281058053 -0.50879024660557015114 0.099259690122510166321 0.35597359892011581906 0.7855458030059784269 1.8203321789534332442 1.1455726090834974507 1.1460143047313486875 0.021074817530805835947 -1.1165115937013447844 0.099594407913982080371 0.20461126081911804042;0.13915310154048413094 0.26615279963363619453 -0.40486448309557360181 0.62472143137247959643 -3.15941236969424466 -0.035921584962110175709 -0.98893701661272692682 -0.5934898750553135871 -0.12857826784822098953 -0.15388918344471944066 0.015972427041188039937 -0.62996219219884730389 0.39036213763723992543 1.4113364822171510227 -0.18201744493973015526 -0.6618454753163437454 0.13034576980098772081 -0.26829114159434275244 0.11576543631053325123 -0.0023479256920651697671 -0.46512114659265929584 -0.13950098410572850383 0.80980796616458772252;0.1801836650944423357 0.33917789405259446411 -0.033224064919854981448 0.13692561755656440514 -0.56341813813564867175 -0.27966225131666322401 0.10199194255926304076 0.021319228817355560801 0.86638848301700055465 0.58489374398466864591 1.1065413186449977179 -0.76987843252135557126 0.5543444582451764191 -0.21650943809981745836 -1.0939532466968626689 0.6390221611586948125 -0.99066619646355424944 -0.28259362272038995867 -0.081271220374807884301 -0.80183196777908538611 -0.59506081466672822167 0.19745338029760819976 0.10566266641154722916;0.16349865239197075573 -0.106267660415405793 -0.13899015369885497906 -0.62660586193461975668 -0.41314839889428495168 0.40855090439244018397 -0.23321736900814873938 -0.97155669615425277463 -0.26796074385437762544 0.49802376526110053723 0.84780907469574651181 -0.45029480933505605655 -0.74856361050006448021 -0.16419695238960052563 0.37726247584366268129 0.14935501927682903744 0.22775311460170774569 0.29584061948039880319 0.31114154646049713149 -0.25602799532602110721 0.093935446191904137248 0.51696638602608735447 0.8467922687601523446;0.80467474421192464185 0.25715374577711874737 0.12820188706185686733 0.23000002265012930991 -0.68716437972591326577 -0.4143240297084627155 0.24358969973521041319 0.34227402996285771763 0.40586649702901700376 -0.68807169363130837869 -0.55880934996998754549 0.23409984185553167624 -0.30385957273806063483 -1.3995642581771836621 -0.90682742735344001872 0.30805468084437903631 -0.99157706137656820289 0.15278265546332264746 -0.55645506129701860498 0.99225549394880996346 -1.0833372786032302582 0.66028123826916429451 -0.17555189747788266241;-0.66709603912816717308 0.036240795594556896031 0.62302394459249710312 1.8692264670385896341 -0.01639489295522029641 0.32774563843893034232 -0.23884191461671253065 0.67471182152674147314 -0.50351445944351158612 -0.30638961214420701307 0.11716655385071371442 -0.49631414608490803664 0.39680598874468842041 0.36115182668845641212 0.097778022929935842766 1.8040131270846266887 0.05742006902891914899 0.43159605799439670903 -0.51875073305388019751 0.33481528425447376618 -0.87347040040669099437 -0.51439246610302125085 0.5087015783599373453;-0.25380442671900055318 -0.53385937715535614068 0.91346511896460236279 0.93025533515348657332 0.21523009080290916861 0.79170199531029528117 -0.73342439919025192996 -0.90340406653882932009 0.015938866985747805749 0.31471314788891263658 -0.23693975709316963951 -0.52276379996514954485 1.1134027803918717936 0.8703092792059470284 -0.615547434007484906 -0.24608087436902431611 -1.497633600889682004 0.34929209344851241958 0.13926612870963400725 0.4745481330118919705 -1.4225396258219622503 0.26722228127105873696 0.34914537061241140981;0.59852002252040681363 -0.041931721918233168245 -0.52271671557556176335 0.38599514795770911713 0.46180202553729648995 -0.079654263025497926143 -0.87701373673355909055 0.19630049141409239288 0.59619194842398526291 -0.62827490756181969545 -0.1060908436923173187 -0.21560327239288568091 -0.44233882916846734012 1.3598608532345912714 -0.092241368080471758395 -0.81221265603713121983 -0.11034735226679054376 -0.35205210801520286923 -0.60662018946957918519 -0.15254739584835169675 -1.2221702834256653603 1.0748541377493254778 0.25170934404108158411;0.35285958460107647028 0.6801928459491981549 -0.86061630061334537523 -0.71618927184617153792 -0.1969217429407415787 -0.47247159527449761329 0.6770326284957918217 0.44247663679135795789 -0.64472435248478632275 -0.7862230970423486065 -1.1212405762538770748 -0.24550371619179342519 0.028420566286293566516 -0.06637569998343149924 -0.17353452045294420758 -1.0232114334842852266 0.11155828775237827677 0.44171289903119181908 0.59602905173454046039 0.70585863305864138262 1.2770132996978311724 -0.65690085481629489905 -0.37980532763976726507;0.23110662329777936774 0.2224454155404551603 0.78806890542013219303 0.43057525537043889186 0.29019340062655568646 0.21431531527584937735 -0.44989015531442783091 -0.28436188832198722176 0.49497693788035046492 0.71773566893730611493 0.26804305625007790459 -0.16141635783425778428 -0.68294370778463042715 -0.46683656167229370393 -0.76751457412939616543 -0.39976488587428044008 -1.1964241098671173358 -0.36384923561790927238 -0.70522874931543899635 -0.21231580812743960918 -0.82764123673650613622 0.30333176436492437222 0.85564458351554362192;-0.41674191313179576035 -0.73932442693440525439 0.10497511301296176545 -0.41385375645020555657 0.080330715717160175449 1.5533718480007470131 -0.43595491708471800774 0.47226544035006251532 0.22310170375770055351 -0.19138497705509210922 0.60872091287170693175 -0.26804025103650530593 0.50466147379133086126 0.92102195707206990782 -0.43636696774975847202 -0.54092194892969391873 0.89743591674429645799 -0.5183881436241853935 0.031971685781131263526 -0.528031472304562155 -0.43572710957459109826 -0.02080289063467894578 0.56839962622092776723;0.53294586135715416031 -0.96844356159524702665 0.12864885506440379426 -0.23003398996763005369 -0.16366190606781627626 0.55553489163304559106 0.44385272940664477481 -0.24437069483166312667 0.70958007105227705047 -0.0074393508268568719899 -0.23711875985801145195 -0.77225675676686755811 0.092732691471759221002 0.28870800397525420156 -0.9031013646830714503 -1.5681298933384211214 -0.53524699142036535893 0.6059011069551647477 0.01376033910941963645 -0.5976292739647653951 -0.2412334261643491462 -0.32745991666362561645 0.37420347863958147716;-0.20400169010839466766 0.13787577737793846322 1.5850384875017624609 0.1773368073718147031 -0.65445977886855155603 0.44293145728823357654 -0.60265148772458787541 0.03639678727409310921 0.27215349855280851488 -0.058630615169637995132 0.2517512742906369283 0.64435937669388898552 1.1785581152044812825 0.58090593535832413252 0.27750010884033871061 -0.33561355383944957431 -0.005028526202562763614 0.3884018144666071537 1.5108347789443965503 0.77008878078093767616 0.50869542693282332468 -1.0860511081125956423 0.15988011995543455201;-0.083470726396082606247 -0.35856767838869291198 0.46400064562020981729 0.65209782567204388481 0.83432454741623607308 0.081573216865641132167 -0.26675611654880321266 -1.0254523543611664405 0.75764981549412380168 -0.031624714121279359769 -0.27277704205958164252 0.28694314693518513382 -0.49473539865970506124 -0.064437129536489737291 -0.00067538820309735302788 -1.0761548694076243926 0.42224346274937329948 -0.54251236880495357084 -0.66760454120515311249 0.64524936666989984868 -0.24546035162802487539 -0.57126797301543830176 -0.11496042010035086023;-0.23603895203303984496 -0.015241767153688176584 0.80957513153478355417 -0.52962562980787120104 -0.10639387034579306235 0.48555734374849157664 -0.33997447561146454387 0.12507647448264458401 0.38087207848663284793 0.20619157084987568829 -0.56690937268790364545 -0.83923923272386635741 -0.40443836006891292767 -0.92008273622115210877 -0.3707504918603331534 2.140929627160926163 -0.92488912439439008306 0.18852621192868301847 0.66947865376747106581 1.6854383659999909728 0.70386403239928818643 -0.29716751330379448381 -0.34338075554347913254;0.39865830836880422616 -0.19889675793602218379 -0.096072106073613175448 -0.19653084922458413653 -0.7388138229519622957 -0.57737075355663858289 0.9435842018697004896 0.5673429403805265725 -0.26448439837287773813 0.30259034567460102449 -0.095965300434754138847 -0.85533419848440495059 -0.20538716084439700982 -0.68727477589230434596 -0.82796403735537627 -0.71784982410802844477 -1.628352437692399457 0.47772183766571563179 -0.62177822857130848888 -0.66546654535213856096 -0.55980000975778987371 0.047077209350908207075 -0.38257138608548590941;-0.50590994007251699482 -0.48537372090187708151 -0.95342825955743493171 0.0062821705072817202176 0.59218940827994948073 0.17684586008954061853 -0.79660899642257310127 -0.093681618168893837639 0.025842137662020234906 -0.2313260920796304243 -0.19721489445569062582 0.49515771176741207871 0.63598858327650831246 0.36633491950142860194 -0.78231028441331817991 -0.077078966319883854275 -0.65768240276752776285 0.40540898343096448686 -0.3320451280545029249 0.64158240428259782906 -0.68807920026841806749 -0.29200124916489328397 0.70080998202033373268;0.18364590147314835411 -0.060045977238409951882 -0.20662476657507417022 -0.22251787529222058493 0.74230135553478238108 0.85137840523100249968 1.0121283715733422337 0.26266822979439302665 0.66126288689148482458 -0.31099286191970088034 0.37059697562875876242 0.45057966344154659621 0.61669625419989537729 -0.65532138898521452575 -0.61817142948854142404 1.0692856778785471139 -0.95355588239198230127 0.83935551793410823063 -1.3486388100174691029 0.21647952879115631153 0.16354143333678400341 -0.37123864052532196123 0.15391735779315166011;-0.88525035878789948285 0.165285432855344111 -0.8934353180709208031 0.11378840564317042883 -0.18998931541967423176 -0.206099381510179952 1.633233656263698208 0.56644000257419879762 0.0028253717548233983625 0.23033096996409213597 0.21562002150018280688 0.36526033517627387592 -1.090614642171816806 0.70962908609408548166 -0.79846143618270704057 0.32276902481011116031 -0.98710571132420921181 -0.30687022980458089627 0.90218421581232510764 0.33210980364716974345 -1.5451413160136440172 -0.24333212419099181645 0.67973842683991425595;-0.078765646268469810543 -0.37303841156798345224 0.38072474554045598882 -0.21525366398522460809 0.32769141867215040298 0.62287521234668197234 -0.31974058238571634316 1.048215753235431924 0.35991572375505065384 0.74200092375345638729 0.31519307429173909485 0.013316747361538362054 0.61640520743515303526 -1.0178470112561066596 0.67464523593121539236 -0.9099604793574490591 0.28042902732872104776 -0.99079832357643060625 0.088037682064476083243 -0.27960006068530929291 -0.62322031318467119299 0.33601217187083959326 0.0094359960114932892733;-0.48919852056269047536 -0.56694054838675866925 -0.041961515018577741354 -0.19105512792255166521 0.50536204765786751913 0.43476839786899418305 0.29904218586698461113 0.77645701785479326329 0.37621383914099659762 0.44050528872739808106 -0.00698281282085645022 -0.34452612808472249384 -0.73341169574459319502 0.62716465474093208154 -0.16747864657586639114 0.30067072192713784062 -0.30952741853430987273 1.0502576441044801925 -0.87141315769012395176 -0.63136642256151476182 -0.84584724904668029399 -0.83876676524064530671 0.34118586818721463594;-0.29021362169055781033 -0.79466978730657855667 -0.53805358226456934112 0.15544876445055558212 0.7369853010245817071 -0.71203024564615380321 -0.17414723632448644852 0.5974158945347211036 0.86043956456768222463 -0.37455345468927497832 -0.44277552016547527813 -1.675968761940463736 0.26136292268348282342 -0.63205706806408068488 0.14304226659433946778 -0.56147657863468625195 -0.80612509161169576544 0.20995402116891845323 -0.10433580934742583968 0.18126082572725099595 1.5742949896678173349 -0.30711982008726129711 0.051715537614156918689;0.59738455447925320474 -0.2239506783457576311 -0.1436292381558975928 0.063253265428011976046 -0.096276603951326408803 -0.030494602029078492211 0.21220442145023543645 0.10391489483901555912 0.40854313819686988163 0.026838729434997689316 -0.20621430665176071484 0.26932840700929328026 -1.0892167503153702413 1.5972150946510041969 -0.16825444801987965437 -0.46712793154254672601 -0.053997556786404853069 -0.73730085151821567191 -0.47500822990224089715 0.065182938004359258777 0.59270164552585624662 -0.26460165499482118934 0.1766909169273297997;0.19755238349801768072 -0.45315201683710848446 -0.063643143218312339671 -0.049014745970137954534 -0.92702490035824813841 -0.66201421793186399078 0.66175940362740570677 1.4162328402488726375 -0.76080904412730865349 0.14834040383496188698 0.38312574618143308003 0.17126040546913279261 -0.32337901252635092852 -1.3384238022694363579 -0.7574156649591536894 -0.41571421014347620382 -0.12278354508704651671 -0.28853701278116933304 0.017425190405059944043 0.11602622322298866697 0.38356949394094697059 0.33646561342524344829 -0.17504785510617387745;-0.03210023965819736036 0.55428404046674339956 0.10955750617234184807 0.19512494457618095867 -0.66413030497144798225 -0.17904543339467998697 -0.78232061989819234871 -0.50303729839513988686 0.56173607428368377281 -0.57783978103444966212 0.29293848879714023958 -0.26567732266303684119 0.64518006143137041075 0.45787385874092778604 -0.19362241866292578818 0.72181131362061634604 0.42731854859122220258 0.60783970886353599905 0.010009355564662173951 0.69275748514467050398 0.37920067392650957938 -0.84678659585397719756 -0.21341900824472165299;0.38035431114621098825 0.15754542579398034263 -0.24354200637151152131 -0.036783099915063607876 -0.2539722073165520122 0.66776461515294527338 -0.23045590133427640289 0.25238737312736503338 -0.32909160451250657475 0.78541984921467977721 0.34233436802944039457 0.061188017741782285697 0.36272020103877694597 -0.6057104243306121738 0.84588798894438577136 0.20380210366120093957 1.0928081051644735755 0.25332311966320070207 -0.06112015925487645357 -0.5963612449324049436 0.40910521768478980142 -0.2450314130365431331 -0.084817090325468816325;-0.15140573866430093175 -0.16204131416343259264 -0.45704396596330237879 0.059379196460139962999 -0.15204198598004897702 -0.23033434229838700702 -0.49012903508868138625 0.4206099400295184032 0.2292594269102301574 0.30711699315270102328 0.2075318875405098018 0.26139791789806438027 -0.30143487460927020916 1.1047052317860750481 0.8667135721767983414 0.6604887207462551979 -0.07325765562749912696 -0.43888593338099790575 -0.33041555051684823319 0.48804658651086624266 0.29931920274474971277 0.2764867748202645692 0.88130944381717457592;0.29970874463638752516 -0.92060211743630360193 -0.26652978611486538574 -0.10442811065780391311 -0.49988185242534727282 0.19214652455644926077 -0.97793448815782502148 0.037139867210678280396 0.33575140990210022851 0.0055351282562962796086 0.21128577161348180424 0.13557221409407516077 0.34555518212982222481 0.11824324189711986344 -0.17359941853679256019 0.314160645126615512 0.39954167007423363467 0.71616387715417928472 0.50416931521197050348 -1.3588737462217803653 -0.32225355957350304559 0.1202986040260417 -0.34096510165306975759;-0.58924701954608571519 -0.18158096461159198287 0.067137145427303701606 -0.37658418487967743049 0.44522027385197082694 0.40743221345806346356 0.26886122759795827442 -0.84821377285243149124 -0.25240490750087052341 -0.19036303404850454801 0.18333492375544852004 0.7578491323611296071 -0.14416709985955167284 -0.23333954649275395754 0.014602896958538932881 -0.0056525409087156697208 1.4646538154264763243 -0.003257018537927688917 -0.12254274525897058956 -0.79662340152780553026 -0.19081834475880890545 -0.19874530135330886749 0.43959102590295373592;-1.0734685700944559539 0.49256866568243373727 0.58981386019974024748 1.4977982944787548991 -0.34744149928284978612 -0.21043054518923520746 0.3026967174052507259 0.67265459737276389607 0.96117135973911438374 0.23455056268502627592 -0.21623936762198930905 -1.1128242127586358556 1.7509491894375392995 -0.087455335169086295677 0.12019870443287361539 -0.66462825416322457439 0.3995867609997534875 -0.32613141336079365384 -1.2789982584951262723 0.56679931361088631281 -0.48990188467624307123 -0.43321566348703488547 0.86985835765085084414;-0.79412117916470903456 -0.17940889342360091807 -0.44627670163255694913 -0.077474106874703005388 -0.34894314243024293631 -0.055534009889822648354 -0.47811901855912386505 0.5458653963605635262 -0.25416198494528829954 -0.0045243780538601445496 -0.48407213576637991848 0.49523082264018214449 0.1778127364526107812 -0.86187857978184734264 -0.21063698136952860307 1.0547634489435817606 -0.72947229802950930289 -0.2988574161965935061 0.50140231181111849512 0.23328363794988649094 0.29282610007931220153 -0.39257494911263557391 0.16377964152718665902;0.91833646000347668448 -0.52997412443004754401 1.1139492589768233977 -0.24756808487061937596 -0.012525311144761085841 0.14936752036156369927 -0.067141839376709006038 -0.2027143566706562372 0.293459545702550062 -0.10298589042472078292 0.32343176609318385895 -0.54408638616206395078 0.10873968779531900664 0.42983670397729073498 -0.65963883298460745941 -0.70361554749069465942 0.43902462194148239583 0.2503315648956842554 -0.41381089124172237836 0.24604771952556409031 -0.090731788298800575276 -0.29710950098433691613 0.42926884691502242841];
  
  % Layer 2
  b2 = [0.41939030339145089155;0.33276705627751074212;-0.87286669944608630267;-0.51554937566551839456;-0.69734132584409880273;-0.22806022629741265484;0.53620057004452559291;0.32023687243104365097;-0.22463675577122474425;0.32891969713069935111;0.24481875374849010329;0.020596106927905599021;-0.33643236202766113596;0.26901774261810001976;-0.29362620089035679216;-0.71749244360379604846;-0.15455097812336712759;0.024420858375672385709;1.2187998785751599229;0.40874476167984435948;-0.42305222251503049602;-0.6902799546585624002;0.95813614940364821848;1.0523360301396187388;-0.039563092530466040242;0.0028792737506342716558;-0.15635380468508494611;0.84882135481394438425;-0.64034837919827669594;-0.79416987672950789534;0.88099957000488948733;-0.10140078085070530767;0.26082586933964857501;-0.39407709285755276873;0.031656715689069150899;-0.36753125735259362106;-0.53068370197429648449;-0.38185430413648913106;-0.065387771811985170856;0.1635677470790517507;-0.24151526670677492259;-0.64498144469053719785;1.1465866411145329007;0.82077477327159409359;0.71221329794201415631;0.51143587055187778034;0.37193405029166831666;0.071777362783809958713;-0.39921789968076970556;-1.0934808579702395281;0.39381469172242938859;0.12727443735913346323;-0.10513768206850357401;-0.5264586043448664654;-0.54923070646019833685;0.65436118866184866949;-0.21215325178015562169;0.75155577194876921343];
  LW2_1 = [-0.81123672130261925695 -0.13493885354017631784 0.22288156435615358308 -0.46616429111934448715 0.42127788656412257229 -0.20983691860651404459 0.40148001423071955074 -1.0620310508522965431 0.9963736656711296158 1.0074096517434529829 -0.74290192084562090002 -0.15615660739373476984 -0.20542769454192982836 -0.12256207828536874738 1.2033235413895149168 -0.32848051855605042704 -0.92526351820383478941 -0.19779685655366344155 1.4509098027364917272 1.1869011207303503674 1.0448395980443929698 0.52340810723632025248 1.1147862457607145004 1.2239053688288257238 -0.43633916551247731164 1.3066054068165520174 1.306288513326030909 0.15034755248112974257 -0.31552441479586496031 -0.05208134316451813739 -0.78802856713041558034 -0.22068917555478501091 -0.41178905267068866003 0.73265150724618444134 -0.85216226405616180006 0.52086422083434280594 -0.22629654699131521167 0.096045837239837061894 -0.2020130539939902492 0.77896999619568008111 0.62947593901680265471 0.12422728316006149962 1.6629717433716115771 -0.64728124543951692793 -1.001055391036274278;0.81565239578602544146 0.61677999055582499732 -0.79656051702165142636 0.25288765877986985053 0.32182573601217145942 -0.02192296285386147181 1.1674242536094847633 0.45582391872938454735 0.25857996838442354193 -1.0713551031847219352 -0.51405480496101707555 0.80170496070347374573 0.6294304182046496221 0.80156075630799794585 1.4270023104212667953 -0.45125728229649381129 1.3522754159376373373 0.13398967062717026533 1.0726178529897325564 -0.31540010124458539575 -0.69586995206411950132 -0.94662079318586689336 -0.040837530625967954911 -0.17444569447526284134 -0.56193818854126054152 -0.67451335329771244798 -0.11210316007288902151 -0.19561533759409643896 -0.23295063247526812122 -1.2245730350927208629 -1.168708888108128896 -1.0615296121503463578 -0.11431001690985331809 0.16249570702920809739 -0.045487033150865510689 0.75853201236455736201 -0.28793865827786996325 -0.62007735121542095769 -0.65839942498964920681 -0.20421958342985599422 0.4598982992192817143 -0.96521320878937122423 -0.269420411633997825 0.85643395085538198686 0.29731919651608146316;0.96099982467908118267 -0.4448713860355142935 -0.27169852270737970823 -0.58009244009360361183 -0.74312617302602268499 0.53128296773344996229 0.3232202350852911299 -0.12860611301811009088 -0.65782094214583508585 0.059797852854454006111 -0.38748950358061717836 -0.59761491898145913115 0.3910593002740614943 0.27183556016405929778 -0.16073589227297899185 -0.5687266353612889791 -0.55261497627950129097 0.14613172166474633351 0.88254811394141707837 -0.29671093314176338884 0.20977649435945355805 -0.67485036426469569015 0.10625407520000823558 -0.95984859730689819912 -0.40668937292304263575 -0.41368776736368428892 0.1205201923383436291 0.91613465989626297059 -0.75449821983635001477 0.45417435433658953636 1.0468356787669121921 0.95086520252607098502 0.083845491657626516901 -0.20290180387223127889 0.36935566359885468879 -0.53291909809663573494 -1.0305852417693917022 -0.25082779563211932139 -0.27723178494797373617 0.84686508917494540682 -1.5144094952316924374 -0.61639388121610205751 0.21914785722689744674 0.5487707652195683572 -0.041014360827732715409;-0.24751434716369943856 0.045646578995961861747 0.7564449520969576124 -0.49335721427425355268 0.76934874729890412315 -0.14515468243895271461 -0.063292873187802162205 0.2571438074399257645 1.0253448897439914056 -0.78856401710021017948 -0.23262057610185596368 0.21806934025968272017 -0.27184957268346837678 -1.1868893772265236564 0.35993383455538818794 0.45792384287101961515 0.59136912459218815563 0.86393810076624333316 -1.8076924636444768879 0.99283795087005954905 -0.010284189808881389824 -0.10414803243398773613 -0.2051456074109323513 0.7307074605022286784 0.58250827578159558584 -0.80536005550588274371 -0.65090296734594688122 -0.79663277714330860135 -0.80723963997030945272 1.1341827779983308933 -0.33559844231808272363 -0.10725965862208855506 0.51407147577674583427 0.42389366140838297126 -0.4319592454069698384 -0.13192657573983793129 0.55771692743916001511 -0.6706150497854717063 -0.07695160766219871773 1.0414620314313918215 -0.28043128655955529283 0.047651060792266913824 0.37184592144116884738 -1.0014393513982076112 0.12628349996176205239;-0.050425460589958573387 0.38882733733228419526 0.043977828178430863892 -0.60066195280282186353 0.50774386244588920469 -0.4143745880366305756 0.74893387135627609297 0.54223308023896743535 0.21166349573203296908 0.49549093226999590955 -0.025275200725533328999 -1.931796163765831631 -1.3514143348902383224 0.29239150126871565893 -0.18729870366486262023 -0.024752436671521483441 -0.45625040402226663128 0.76024784363194486403 0.41899170229104376606 -0.3870238946533770541 -0.81976635405529729717 1.316774256311906921 -0.19860378887568430617 -1.0950162868987884934 1.1053569861035485999 0.9056273357350678177 0.22400901753908389336 0.91752910500190298926 0.027802171839700226541 -0.94316760580078129461 0.23176586798903858755 0.2796838862053458441 -0.75215916735414600769 -1.2079769828350512828 -0.32947893385476573203 0.029970834179301651667 0.10771472902265111227 1.027505090158028267 0.94294973523054370634 0.40346294407654570424 -0.61349123465941135525 -0.45577106804004291485 0.93195745941191832085 0.31613701124879078908 0.87396498382367171498;-0.19085608169504145182 0.32374437313083581635 -0.20333084122319330933 -0.61320575721752990095 0.095893732384333296714 0.26821041403541440173 0.43284296475532740844 0.46208150162811612027 1.3944614785441658 -0.80928442961967783642 0.79165417398007731364 1.0334442142224726791 0.1502057081916569059 -0.35690180155158068853 -0.43195982216025857747 -0.77803471146429226124 -0.69305464974142627632 0.74420184714666193226 -0.20954966929970128553 -0.34812757698131524542 -0.16998290728751530576 0.37110246188869688844 -0.72701157309948016838 -1.2013382036850128731 -0.77537276296955703891 0.098772750695057753845 -0.30136966518120672509 -1.1108024870678583351 -0.57533024162196377826 -0.64112768552145804613 0.51806266148422730478 -1.0791240863761397684 -0.19075570805631569815 0.35355481991087145399 0.12945794990652875756 -1.1475512409408930026 0.69007092699409100511 0.41435993006185661836 -0.22979422558099210638 -1.1121062980176898982 0.34559009368468313061 -1.10454105716212303 -1.2039031568668454586 -0.0015263628094037730298 -0.26734248632634483034;1.3383206047238884739 1.0966830542410110905 0.65590181973651495717 0.98257352521778651422 0.92244200353317007401 0.94216831001985801297 -0.65825690608739384491 -0.56494197218790609405 1.3320634563503301884 0.049546588790707210559 -0.33365808287671538945 0.57013174466759286574 0.70303982100480133521 0.64230260618906209746 -0.59391022648767033409 -1.2348157706146944967 -0.095530413719399381867 -1.1536146922692647188 -0.26911422621831515567 -1.2527172271459736663 1.0853532909872591894 0.76151172805335698435 -0.70366871782065953944 0.62959453591607350553 -1.1977089498898547681 0.010259202931325133584 0.22751773707351838349 0.27316022767684711159 -0.042404225794480061851 -0.32688893405492269739 0.92759645448484473462 -0.13386720716435662748 -0.86266847041263527984 0.28225617510879258409 -0.91410170492167419631 1.0263930006612658197 -0.26133253124979161086 0.4456052542437946018 -0.4972543331088335461 -1.0619403484725900011 0.5963983833446956373 0.74994425709384215928 0.46541755916932575632 -0.69269687298932924868 -0.057409340187077204098;-0.60761057733692136473 -0.19902202528563139872 0.81892778701031077038 0.77269095445579183412 1.0332490806062673006 0.48712182106823592731 0.52809691704002337254 0.31504917866120885073 -0.14306272852093010473 0.65758861970569870703 -1.2122720501500290347 -1.128646272847265486 -0.60138318185720573972 -0.62816457768561007047 0.58948753261966257977 0.99262423736852545275 0.68268957547532482799 -1.1257471463213015728 -0.60360838637231373216 1.5153303791026579983 0.40267930406781998753 -0.27684248312475562281 0.77077323634283279041 1.049367582467397364 -0.4891974613046667919 0.54242201603310702396 0.81950724196040736214 -0.7400841743214500168 -0.12600416776510614536 0.74771317982118956635 -0.54423462129011535016 0.058990772972152681619 -0.71713123975370507424 -0.27639340786140687012 -0.74011774310231970286 0.16227799941628034963 -0.51356096031016595926 0.98968961982475567307 -0.36226301602172295002 0.4450083115435143899 0.520222868286104978 0.53385619919150140156 0.21666808878171275876 -0.36649942327484980042 -0.26632892357689247342;-0.93048768544476601061 0.98630899457579623846 0.24587967248453218572 -0.52808391209586857951 -0.079261534933566080152 -1.0927165593881107419 0.63029990916314393434 -0.012808810620706587158 0.085758495498373110699 0.02624567554562978397 -0.61251583910146434331 -0.22532820674795353555 -0.39472493913541517596 0.26968718439946215426 -0.55339522455302780912 -0.041091115231465261126 -0.35449040230416017927 1.0088958853892942003 -0.20305811033986964631 -0.51337600067380551039 -0.16021714758858904282 0.048633684366607907168 0.14961822176411043728 0.82245544298309825049 -0.58833519652581933723 -0.59497229597745038276 -0.6710448385515942471 -1.2091828465456229136 0.8093436477497445436 -0.8235393598334905807 -0.5934600121084139257 0.42302128514123754632 -0.36581519679797108724 -0.26247335958157780311 0.7939996281239074527 0.010286564698733124956 0.37399424288067595334 -1.252768714039523168 -0.51734460926144376636 -0.98498159664488371678 -0.29820949345563846355 0.067805311540230894796 -0.55149100612129497989 0.5231824307124389728 0.45832643803383565917;1.1957845982815442643 0.83084757572455969488 -0.64725702697443188161 0.12272771565296397567 0.62189334159571207916 -0.64503932812738806746 -0.38332471308462950921 1.0137911224709856839 0.069444218835534837764 -0.088922822453901179118 0.73289664052609604372 0.8267703254507813293 0.46756229613661504096 1.5647227341683320745 -1.2999116398357739577 0.40668190629075851028 0.015204343236680614715 -0.98041706185074750657 0.41899363018204965892 -0.7120135038490648105 0.25237455275284587097 -1.1711249950600963743 -0.48920507087250575395 -0.61917516766109281789 -0.40086248724809203647 -0.63641949057038338378 0.30630198251798090858 -1.0222471254440121946 0.27474890591201178713 -0.58004248272575531509 -0.2712943531468329228 -1.2856347509116923256 -0.28766093776505502477 -0.1833034366677150917 -0.23803273955023754316 0.82610557699278264199 -0.79083147926290109364 -0.29719698557907919811 0.78371163030465440524 -0.68140623971992764218 -1.0213909603407946847 -0.85269705713294974281 0.0021660678862169095715 0.85284438786672289723 0.22419588429356265835;-0.29442909129321526152 -0.12365867857579479483 -0.58086067963340948239 0.13415485003737043224 1.0235011650694019192 0.56923440250624868231 -1.2124585378456107509 0.6198850447609889347 0.7485557394794286612 0.66491717841100128616 0.76232116455402498811 0.43104247816929752712 1.3458946797700919173 0.61294674529654391559 1.4692214935009084709 0.2862922951739067523 0.22243526508377661766 0.47301708647717716216 1.0605141538353488606 0.99803085587525408595 0.07200149013273499099 -0.80409011225357862607 -0.99212422951040313279 -0.45414764604650864621 0.49716186285456620553 1.0811883939092774565 -0.46468563492598846665 0.501512151415376084 0.0035430978926994215888 1.2490087924135180319 0.67729243061810062709 1.040665780634675075 -1.1359056661927036114 0.48619289517020508606 -1.3113357581998654755 -0.32424149100103272225 0.72386092514781630314 0.94283328759076012737 -0.09988081317924250857 -0.21350456705951106895 0.59558712045065109741 -0.39883549047820487932 0.92109464592086010004 0.028470760982570293696 0.69999945273278574298;-0.088295973349780967898 0.57133576861536916613 0.50706171104309749609 -0.061883754630210272007 0.22304674261082851894 0.92495525848523363344 -0.39453234016097132875 -0.50650080447780010395 0.49384341635230966094 -0.82339107914584763748 -1.2056854070872664586 0.13598236774136004956 -1.1676354929394550108 -0.52813615540353342492 0.88938183283772087595 0.019251923934384261583 0.52533636089503943367 -0.66010389978105499242 -1.0990945326161820628 -1.0703806791571428558 0.53742999769539001598 0.8424509935896165036 -1.5774314491294225693 -0.67261881424317593314 -1.1987802242898535354 -0.022311213132027066242 0.49343001092537025487 -0.25001792777480780217 -0.7429028501111042404 -0.47987279499348750589 -0.68920272017548156462 -0.0024819486291459483263 0.65421433411965035365 0.63997960442054890873 -0.081072172885030255318 -0.44746712076061434527 -0.21277828362245504445 0.19416516002303688126 -0.66982310424109858804 -0.15018148293546834671 -0.48932321749261109556 -0.32114709490169163209 0.32293446187581220652 -0.37521210186808018339 0.42962883677116253667;-1.0175070642916814734 0.32523675196534274079 0.26218321758172685731 -0.99099596392013034052 -0.61323069088013404393 0.98234301306268956289 -0.43561659707579719614 0.0516180513428057125 -0.027000309460413707274 -0.19533119646109428635 0.14886536488197243955 -0.82542927781925012898 -1.1293921867858802699 -1.031308197250260017 0.18712743187912375675 -0.53375645324142939607 -0.17401251759517222251 -1.7844261226494799732 -0.14809648544888159849 -0.66074194443073719363 0.041703473354948533691 -1.2618509051267425836 0.25589314651712252724 0.57796814416596287156 0.22329060953027496383 1.6218609969814203886 0.97111694786251723244 -1.2093064540596742962 -0.45356833749538577605 -0.35065966611106946793 0.65588559756223896446 -0.58439422153994446951 0.77813397102820247575 -0.0015056145974901534446 0.13492495866391029935 -0.45876057227585609333 -0.82353405421414016541 0.37287887527709773217 0.49714311959444007494 0.026330641882761747496 0.22491522618857184845 0.63606348843587112718 0.081710086513322677249 0.51107115490438548289 -0.20126840972699180932;0.77630446976879052823 0.21513293174310249567 -0.98757527723355276184 -0.21829644400419229155 -1.2324704925421285928 -0.23868144892086104458 -0.27811888992970112966 -0.76490972535906187613 0.53954241298122451731 0.67616463299514484309 0.96076860163145050286 -0.71941651211263657473 -0.44755004841006273963 0.60418843192878568527 -0.49687505409853638394 -0.19129014446729558641 -0.22079227641474141741 0.1364858047085305004 -0.34977225912336434854 0.27459742791592933742 -0.30213819544323783362 0.59916424897752618151 0.39084448359608975343 0.17916972825030236249 -0.46225879488913862447 -0.33646363084313929415 0.076276841745765239233 0.66132582400464712258 0.49440612151072504954 -0.037521405546921529628 0.82731325913733511079 0.70222288656036846444 -0.058784576226634639717 0.50562118007255474339 -0.14171439545864103482 -0.18737250436149427424 0.12814580101859504579 -0.7578780989281975744 0.85316881064364946674 -0.64591445177346795692 0.86435783372981167538 -0.6890125206144566139 -0.12099485003902550606 0.50297717537719666137 0.21544338305862720251;-0.42239240841156966422 -0.0022438710618983247203 -0.99492412723097944927 -0.024995448850440513122 -0.56269244118014438705 0.069956321961441414459 -0.26713240185379283353 -0.010482528244665542672 0.72151235971258609325 -0.27032335899484172259 -0.28393858827690166002 -0.025649165827588200905 -0.22511228367125252214 -0.90369973715500928613 1.3321243710440635599 0.21868086237666939375 0.6451185288329343015 1.1487771885460527077 1.2915186433567005242 0.23722654740669299467 0.24063182190544696315 -0.77666062008095237967 1.0772283705632752504 0.64492325853738874386 -0.4346331696834361269 0.12208429247931459893 -0.17719429635683262014 0.2711121549674679887 -0.17220470930257245068 0.074527705773472646689 1.1662495151376657265 0.12225432478018884164 0.15397466328295683624 -0.23707846530582957212 -0.3568633740254543163 -0.092447657743137012787 0.65261297260174699897 0.85076826554625184507 -0.89229825041036325839 0.038632434841569800177 0.16379083486853698859 0.25922760225426383363 1.2330683146673651063 0.83215877091749612671 0.27921596521912050992;0.090794885904658381715 0.24421285686235089107 -0.32291671913831404561 0.71277993290102403812 0.057045129923220694312 -0.58411105497864390657 0.14975387826821714987 -0.7323650774351601056 -0.30934954236346268175 -0.60570056292485441318 0.45927728328017791704 0.068820017457649734771 0.047701181930929689723 0.1835464530229190816 -0.47156091627189683502 0.23961493026827615505 -0.97089135524961356349 0.14588666884670054014 0.83571430018027159647 1.0557917247844399444 -0.19615598499011685507 0.2703809682015553828 -0.10196664887154280321 0.026327485765544306195 -0.081940184122245296461 0.10810765676422473547 0.63969107645303568965 1.5791224986090375282 0.71391132922499089819 -0.72181405853478686208 0.19547635106334254607 0.76166794933820036739 0.91963217355762205685 0.33563593664196833544 -0.85596998450212180565 0.090002404938417296387 -0.10846907335996357202 0.77211169865056095141 -0.94343678217108095652 -0.4485933061901692942 0.53326393294042429005 0.44150033937785093663 -0.81682657402553549009 0.47946803256553699457 0.88264151236971821746;-0.2700865647538371328 0.29347846393634963169 -1.0661344588021102187 -0.85357205957357884518 0.69260977727730788089 -0.004653852870076150873 0.32497639761301339023 -0.056096842057818896432 -0.15533780247731021618 -0.37882722051555789422 0.36998337952691362496 0.41437155036297257382 1.3792680721920476117 -0.95515641548906693448 -1.5428660806549248097 0.76400357016280850964 -0.56755230121451949454 0.53472532715717568941 -0.36046749470430899942 -0.91530932012995414038 0.65727824704713477821 -0.58534831299322576115 0.96588447690697865067 -0.98254889686187629749 -0.18339995602417655252 0.4327007610337464949 -0.71465628011643367312 -0.23554503843728230583 0.25309346466311388735 0.67974573509062374832 0.24697948967341079585 0.0054115379135924231851 -0.66162926337373273444 -0.66835462068862350193 -0.46047129968317640492 -0.52447090774451987638 0.330543503602934996 0.21692974327771738507 -0.53550894932252635083 0.0087914002789203013477 0.9259101468863362161 -0.40555135658723184822 -0.87409095486072008185 0.2902202344536231049 -0.69132276263629699464;0.075883910561765022251 -0.91777585160173524859 1.0154115358554389736 -0.81316925952860652504 0.17139167404893479452 1.6805355331971874033 0.60886652334993118796 0.22490259196792411478 -0.005505515033966576835 0.69640682737968906402 -1.1782658338865947822 -0.85792062322148932019 -0.31463359491550452196 0.41038224248697419139 -1.2144794585438736245 0.11324225252166986166 0.058067603331179058757 -0.3893829641452823398 -0.84957139550536531214 -0.98362097266355297265 -0.92337094257243856887 0.16171235876331310766 -1.5171194034549109197 -0.63142709234866545298 0.21976170981269060878 -0.092463537231234682601 0.56265453874573456705 -0.3448902829447235141 -1.0240889330770548415 -0.54682390836943772783 -0.9722219037776064221 0.024059174034651794466 -0.52260783548769784712 0.29814552167718244569 -0.35595906751782108168 -0.20811498124978330959 1.1436908762023267894 -0.60734832603381561089 0.6347249718752232539 -0.2891735176391015405 0.77296017521711957166 0.22215481936072004054 -0.35227604302533821468 -0.0083485912211367814539 -0.67577361416660419735;0.21310055682089285023 0.04726666688466127364 0.072089898566885440845 0.29198869708560409864 0.41993865407805680556 0.47274253373148733548 -0.30700530995113317623 -0.10599360559206670584 0.2599853199670512649 -0.68039601994157905551 -0.97177544443227059645 0.37569764071055244958 -0.90799177946401887773 -0.20963075291665200783 0.65876754259706393757 0.50376490091955550277 -0.72216793224624376002 -0.31968278466977262386 -0.049531895662239547318 -0.049631461524159661836 -0.60879807369610361434 -0.29457899959525518652 -0.96508518507714102785 0.39382100108338791156 1.0198931135243658463 -0.63643340193388586723 0.014753769656584415221 -1.08800697600817875 -0.58554750086194962133 -0.46721349723901589579 -0.14392195337891319773 -0.0032975100750733954413 0.21423992187007337429 0.029618333566946288687 -0.049960089982109330553 0.24981459908364894718 -0.85013536605592965323 -0.57968593858155192944 -0.42643741671719387343 -0.27740730336192287453 -0.41550885964602496392 -1.1100151274366261145 -0.82361975572830348202 -0.1124904059226690678 -0.41212257632168630694;0.34631166304384375376 0.84098051958696840025 -0.13185327457711984445 0.28612835984821144431 0.066973947690936536103 -0.072521577347583396356 0.47361599452135821897 0.6698804419886761341 0.062775658492394595389 0.23847818780026214247 -0.14219565933602279495 -1.575713857147944541 -0.8352593695163064158 -0.56328271142319574771 -1.3700328886174231169 -0.72811149625355475745 -0.056675523433710177368 0.013145300500842340211 -0.42266171884386216639 -0.26127105078536216887 -0.64046443356874760422 -0.20488311102890557902 0.63989435163354646541 -0.14426043298656782143 1.0776856692490253131 0.09895607969787956204 0.633665564483112842 0.69414396699085112452 0.35363144885306035947 -0.42788068797358591588 0.097690460478009499834 -0.84581709950093375561 0.752575722391788271 -0.63153818948829831825 0.33300596360040735089 -0.28421462114349760331 0.0045370443993823540707 -0.096411894292875818802 -0.73463378143574920021 -0.99488979467278093605 0.36733292849933535384 -0.19148810478558137005 -0.44036060358229733858 0.68286420376796141962 0.67705226364276371864;-0.068255200965840367999 0.44283279679607717716 0.78988056556848629253 -0.39851773801564333022 0.60427025607272155661 -0.82757278393454714038 1.0066996729780728348 0.48364303011798404075 -0.78534587631134300523 0.57058362261513961844 -0.025119684307514308919 -0.43184023963754991637 -0.81142842441381479723 -0.52290613830365328951 0.93961868261282510684 0.83523058618910817064 0.27146931762801285171 0.062238994109026155033 -0.98573125574113706904 -1.0207978704536302406 0.63794220629106423992 -0.24970561698034288156 1.0008173299908766918 0.55642456346043389637 0.64980521144837299907 -0.66037979137533842078 -0.96547940807034227095 -1.2902621231376916189 0.91553746659280998976 0.79113988656441369685 -0.50981509595904717091 -0.49876279693070241228 -0.72067771699971316934 -0.39888666833745983764 -0.42275427519984609681 -0.28453085623561863438 0.91978392604778036468 0.34779036542026048329 0.58866468315108644305 -0.55296853815050994729 -0.52129299961713837508 0.53886219317140771068 -0.61979196065543395999 0.75174078019477597046 0.64852434914049494896;0.014117769540612454607 0.15013224842884828614 0.93476394286814634693 0.45563813844206968451 -0.092781040938987160982 -0.24209879333586320493 0.82041945523994685985 -0.55643880873073192639 -0.7843347466540673274 -0.24877275560488854023 -0.13619059820356854695 -0.92131067762861973414 -1.4998765626363759207 -0.34682681942952175991 -0.50344160393182579849 -0.87171619174076331316 -0.36405095446618185306 -0.84130825277841003729 -0.70583805184469960992 -1.077476453810417123 0.53168078132949891934 0.35520269618193489602 0.54120112570898315507 0.33241887000738801206 -0.14102575259540434116 -0.28165335637691679693 0.12038604010978745662 -0.17982769134208811956 -0.5211733705017606022 0.96198288233574580364 0.082726445965748365841 0.4118899353688100784 0.44517297672102684736 0.36489377052221622089 0.47875152905040146978 -0.082930025921489333718 -0.42258557125839918411 -0.32016367653840666074 -0.24503720582568344621 -0.77604812826375646484 0.82285105079842091325 -0.06259607299366302946 -0.53955710981597349019 0.72051840460559013479 -0.75634719548738471584;-0.11143043243266187448 -1.0885735967953364955 -0.1216304221231958721 -0.34725400110354770478 0.17806495416096723705 -1.2135528937119834936 -0.17414394574115060754 -0.63334911280078787232 0.32112798451541135769 0.90773885163636836015 0.31202376411472676487 0.50735765956623812833 -0.56114259249086329007 -0.32291963826678032889 -0.91198212457226957017 0.68411132843363775535 -0.18674308489838964409 0.86503806843685304706 -0.85576164959831091394 -0.38389749518036186959 1.1522887143227107387 -0.97009002291900991999 1.6269613621362504219 -0.7322277175228046886 -0.50424045999974764776 -0.77470896340003747582 0.59474389878684041921 0.31172959024925045446 -0.50184282334895069511 0.099036031693315013102 0.79873995045670165283 -0.16455143736925004205 -0.27704505741813595376 -0.48578940101179912681 -0.49962735395556234774 -0.38962902032768303995 0.26125581956436300102 0.12220638283030575699 -0.13993961504488941494 -0.38962046280832690615 -0.45735013550769204604 0.62004588983764497012 -0.3685978091338966145 0.23217072224059207008 -0.66593418293840733746;-0.8154085568507078996 -0.17517309101931394233 0.43976369870727172184 -0.048381583398109308247 0.33360933048446006488 0.29672772526077445532 0.49958508726254086119 0.96226031763670294428 0.017333930308106006851 0.70689484243135936037 -0.66333162885732932512 -0.24441470294319553314 0.43669939888346803736 -0.30379159677011358109 1.1929801907885888568 0.23721045830384368536 0.59855995684615470598 -0.50894785312033830049 -0.30244634081536347914 -0.69393392501268758021 0.097500070301269517459 0.50559688044145156827 -0.73933736291526708229 -0.65674138312924723593 0.31211137416991535654 -0.29843796382949389079 -0.43728170315080688857 -0.91013218969670817149 -0.1789857248845245774 -0.35211436511227611756 -0.37730190090208753917 0.10204124397594799278 0.66511057608229551263 -0.15656910647693580985 0.52026599448427701677 -0.32857654964157700928 0.24424805370855354192 -0.089166607529439639857 0.93076373506556075998 -0.95754896118892940393 0.47754798325135117132 0.071618870784337929081 0.17698438285767612022 -0.94352124376837165354 -0.6302526106248730331;-0.77696240896181023583 -0.64857473957785805041 0.29862700116291324148 -0.55676272869037146673 0.56745340103810004706 0.87554578461149723534 -0.57493932473269904193 -0.12491244489347741453 -0.64013401193897800923 0.30625921348805962285 0.36747490270732019457 0.094570822113239041973 0.57546804584373767444 -0.77654552645098062769 -0.67919868494078128318 0.14278520643670039592 -0.11476022095060996187 -0.043946087295318729538 1.0493177580408401539 -1.1811724587218317417 -1.1732919644135528792 1.495645182114833549 0.82803465071118564911 -0.18038589754606737525 -1.7624679545564119199 -0.45548179529065496718 -0.06723512872654485717 0.80720483482113225548 -0.3144655729855734827 0.8802614845656849818 0.19184891772842233015 0.14240858154885335796 -0.51425260736345868029 -0.71651066222456782917 0.56456821627314490719 -0.18973274213330365567 -0.25288914155481728718 -0.24395749031139762897 0.30098431167807215836 0.53314369986270593316 -1.4486675810004943088 -0.72721052556563381408 -0.51826787575174060319 0.24467070489907019604 -0.64565873854436739432;1.2666502983837832907 -0.043551335948670215348 1.4837094165687323422 -0.2430749770277685351 0.083669249412883464623 0.046702295060405976668 -1.2804759251560191569 -0.7996665111300730322 0.083967041621994864542 -0.26900645724351007759 0.34581027959908022806 0.72730916211482077305 -0.96633101846747260222 0.033959368547295136487 -0.18666471176213125793 -0.91128251775816027092 0.35528222353146010626 -1.2487458066505858767 -1.0581389891706558526 -1.0521600295727751018 -0.0073957610320283147243 0.32728845172878839875 -0.35775532632626927398 -0.25742597657626403729 -0.20850542882845385373 1.7003633196668905825 0.35382422905202298713 0.94139857579070584936 -0.50351940966640251762 0.64950858512718367965 -0.15910809347565210703 -0.21527264512459509671 0.40989273095040940076 -0.44052358595857910029 0.39919460366203957102 -0.89004409779674109604 -0.80127619808582961625 -0.0050760593699855924635 0.85324244359637191337 0.21808302880227664611 0.39209405615367748377 0.1120400612334731677 0.034954050707700197453 1.2025429446155306845 -0.57684660888256633626;-0.4977533653919915535 -0.86122209856569087449 1.2244534623323815037 -0.67447790782266503484 0.051782719522870016005 -0.36457993503276631131 0.84462159296916683449 0.80288641389374881818 0.61362252174885034695 1.3746240289353119923 -0.77680492440479798066 -0.44999388174261356621 -0.42142426026818075036 -0.77493419158217557996 -0.78896177135078193743 -1.0116315347714750494 -0.2834739617744447826 0.33430537782250280276 0.399694412337219529 0.34565620378832923043 -1.0544803268446665268 -0.042996346022097703399 -0.63231136485954209103 -0.41860837876860301776 -0.96818735035121183952 0.090667294053006566856 -0.48718138056941096004 1.2767781570691905113 -0.66944793106990174714 0.41874413520431591484 1.0483406414721667677 -0.48896303380625338875 -0.56902244834872350854 -0.25632474527236576156 -0.60470116807513707435 -0.44794930197379922987 -0.10781290978420511595 -0.40986973331283826916 0.36049537791462260561 0.2316817859428723092 0.16983214230584706139 -0.65719314258799987893 -0.39043312434344273898 0.35087414609655809272 0.63190482802946590368;-0.53475383002525944676 -0.84765245369515795915 -0.01775201471229605199 -0.67592933479064676305 0.97666584917670185018 -0.80041586986926216429 -0.8653622089777559534 0.24298079452368287479 -1.3480166659360441894 -0.95404201662843246545 -0.57963858325653183634 0.42785424056208959387 -0.33184302911922730628 -0.014234039815152092073 0.15482136817008473884 0.71452544286057628753 0.56674750323686606812 0.16916285032173841718 0.37400869253026930439 -0.27952103852214293944 -1.4548730702485128674 0.1749739574443302248 0.18118833641474207941 -0.42492489394637938949 -0.67931027790451592452 -0.068292712825973600488 -1.1654188888665366619 0.011145331116593167053 0.13103844539989900619 0.42296173338078851822 1.0723253957347278487 -0.55614201618221625889 0.45753180651280506153 0.84551757736261812237 0.88919657053540013258 0.6521232843480062602 -0.23520625075006287852 0.68721494756437428997 -0.60427428806504723813 -0.72166525504032430494 -0.25655008660884415228 0.5522262884026319929 -1.1541451928653174708 0.11716826297512158983 0.77336464443628438747;0.32683298963236523393 -0.046543355002230141215 -0.51047865448517426579 0.28296064016929511897 0.03241140650660731537 -0.61889169154860224076 -0.80018944289078275389 0.57689940220976509977 0.91003958487721736681 -0.63883479495575890006 0.63262471952323995339 0.047102329376814335016 0.93292047613887107982 1.5004726490047135545 0.25072867162817014108 0.64037706783373438135 0.10582784562290135921 0.049827314818445045397 0.44760573256814217835 1.3679891659818639305 -0.25863912062518928936 -0.59389884598474373956 0.2620497738997366044 0.47604143602133647262 -1.0297674410354393792 1.4296373559247863572 0.093781768111279556477 0.18803407545762376718 0.44737336801465321656 -0.45966120854821324038 -0.78855644724790896483 -0.0047679912641054346401 0.95275110688780273449 -0.25738410906452163784 -0.9010206485158324119 -0.85801924331797108092 0.31091808272601839658 0.56973347800413498554 0.36791821843008110093 -0.49521634775126593953 0.49697455150411318225 0.079969250879218772843 -0.70309523450145916534 -0.412019297583183286 -0.26699692443799938335;0.64067499029422136925 -0.63038829248068484201 -0.10168847485205569081 0.90523855442734035837 -0.033259239760602271607 -0.19457411425068182886 0.12139632859930228614 0.22614914816395551012 -0.20656123921159474932 0.24036237018849013203 1.2565074064685721744 0.51304825885500460192 0.058872942239124557984 -0.39758454463362857823 -0.75700757484418457199 1.0442324074103885856 0.77201085914384137698 -0.36045121205117525154 1.1640856181206760134 1.2528121423045843752 0.98029444204580962197 -0.51850940440924431218 0.39265574827429000626 0.39362506451383239003 0.042640504075938362449 -0.92470945605345677976 -0.15977417591634218708 -0.75019496610157454519 -0.65849392221382119228 -0.11220975835190354075 -0.3985005088576957788 1.3668509963572577082 -0.4308800059807888494 0.18525204837330153107 -1.4546461301990485371 0.92610840834117647002 -0.93089940235844037542 0.12031452168247422363 0.28911188014500455168 -0.62203294867751668384 0.11171848456743585509 0.77562294926641262016 -0.65608560555410377901 0.4364630655097849754 -0.11582355437860519798;-0.014895155721419445216 0.56183748737950423013 0.58759958938474299295 -1.1739049489587258801 -0.48713497903411551171 -0.83853831090471264709 0.31901186540137260739 0.80287299627174968375 0.91491439868257984358 0.34774693827479180586 -0.7050250649207799869 -1.2109727869040778359 -1.0710313258461869879 -0.81810853356425028426 -0.79315313046145696774 0.24675529141674773514 0.39185320466772732839 0.42974755463679437106 -0.98919664386994321514 0.063535627187397039628 -0.73142277075464123826 0.78896104588307991445 0.23734391145530589484 1.0812572727590645805 -0.52983839083802031222 0.65034306125884500105 -0.36048521896388457941 -0.10846995045581281358 -0.17962936603057988449 0.53772230502866413815 -0.76482241486388324869 -0.5907333646084782508 0.18692910533365114656 0.28604424742930822934 -0.78337149100156311388 0.42434050323948724337 0.8702908166717884253 0.4538901811163576494 0.72421929441719068432 0.65428207159265328041 -0.05623078732757902376 -0.62891044852753996697 0.2175910711628874783 0.4031342750108711237 0.29511490624587521925;-0.65748908416694040735 0.28657064196696779845 -0.45515234034289064891 -0.88845830596119079736 0.35679049856260691698 -0.75677762947553084416 -0.9565000006265224064 0.05327759964989869923 -0.54705166963201090624 -0.16439203793607415349 0.69947070212479733886 -0.55461493609859602305 1.2036261117194315684 -0.47033274057969470805 -0.88594872819885006621 1.2444970755257096506 -0.0030766294497303441069 0.36828130376323064965 1.0694762039181127111 0.94386607879457851134 -0.040002489878084773745 -0.28023249066083394387 -0.55198452957949994957 -0.35428522624601338498 -0.46437067829458628099 -0.74113276097503522077 -0.37810643661125176163 0.55874817091998330021 1.4624682495207526056 0.15292308674448792938 0.16769257826933040012 -0.38203350609585257081 1.1886020410498210342 0.9225020025368300125 0.027228876229686907462 -0.52639766403013732443 -0.79951374822694731836 -0.72479235686979570641 0.081726065201693079421 -0.46085653295017386943 -0.96761311722370324517 0.72517761578827044655 1.7666420698277429668 -0.31660507654500269492 0.34120134006121805026;-0.25467178932107303879 0.23944524988547138955 0.46055453862991874159 0.61929678450884617646 -0.21573908770891939146 0.30987687103565458857 0.34750244514179767785 -0.11727163587157517222 -0.13603175571362793872 0.50798774452989370332 1.2972492394834280738 0.41212169057320940935 -0.011905320198939903231 1.0465577314222922478 -0.3568333637776771039 1.108697707181278469 0.65000850177538938013 -0.38062310194045534395 0.45497366976403935679 1.1025980190377480117 -0.96100555284622490859 -1.626823526160358302 0.93655100904589327904 -0.26168823429999538144 0.74047980984076178235 0.40645956525489412847 1.4199945580839943293 0.58920077949653948401 -0.28811772243214184286 -0.60923883613240359391 0.81302143566300766331 0.58116801598375811277 -0.32136863167630547178 0.81489407507267674902 0.70349343364707050963 -0.16334602236868384084 -0.81264286013598785452 0.49801317880705409102 0.33509281571673937838 0.66193305211799069454 -0.76541297367300509258 0.15567467389163378022 0.68949249000104217977 0.75352703881529015106 -0.70149643069685407859;-0.068426259181635210038 -0.081822651968400231248 0.42371738386434704138 -1.1263426458033947153 -0.57143601962565060415 0.13943351910609400046 1.1764606390855403273 -0.043022698393029766561 -0.27201070861224263542 0.18359208062663776029 -0.25773769621104475336 0.48931520913951720431 0.69164817896900432359 -0.013404157221875255893 0.70367098642031999933 0.5323678416916572953 0.62100702946069763488 0.70493603567539420141 -0.63280736433533846252 0.14270736012993862074 0.051307119938754468247 0.55822134499903375282 0.87818154406485759988 0.10902947088498242401 0.89604454239101549717 1.1199275923921432341 0.51440546008569254521 -0.38338986307781847129 0.051521488526565850652 0.67132463454428770167 1.0848943280017238067 -0.76145470666193171283 0.04845527270161361505 -0.82438977522753642546 -0.10089493249881155423 -0.82358031482224824948 -0.70193953184515567312 0.81084799249727235182 -0.29609880040050184924 -0.22775818003712750004 -0.42753773507222431194 -0.15165384595186243155 -0.66535916681176066056 -1.3062546370278873553 0.59871064018050279554;-0.82926218726536182757 -0.22738162346004361924 -0.001305831053691360738 0.014636350726595172278 -0.65051999092089396459 0.85570531009093275809 0.29858769538262497356 0.67136413322016652572 -1.0435328104532697324 -0.51241020295238481896 0.95719753210648494957 0.70878718909339444298 0.19985304956954114131 -0.73816734658847138473 -0.092569678354716036783 0.59646883840535758203 -0.18263907185918654141 -0.26789595179359443344 0.89737549892488666092 0.9459817950174191914 -1.0504007397433792192 -0.70508448703201354046 -0.42710429257511695056 0.264024210310499996 0.0019917193882723963072 1.3035863723296270411 -0.74877023092558370188 0.46091427417419628121 -0.71453421975878073091 -0.73078125001276206252 -0.013481618352598475491 -0.23238628382914691684 -0.37827876207787936025 0.25702411808049691055 0.84684059578107462318 -0.61857950251697990662 0.15617625063383100414 0.16502556960832726052 -0.30971564078430124933 0.87777803212580973735 -0.55706282428814313246 -0.80953720532726247683 1.0079189368231116219 1.183640358392604508 -0.71017806616829115551;0.94694554737599712091 0.6107789826891208973 -0.064425980373439481474 -0.43257096622935597985 -0.0059026005693422721465 -0.57688066424644368624 0.32295683679235676067 -0.87207265517292698043 0.62759006323583155229 -1.0112327248934795954 0.5951752305132479437 -0.68847238427036550057 0.28682853217619508346 -0.30652311242530538848 -0.2300016702689651471 -0.57432089938749586455 0.0086437546312086929734 -0.27174892999990568621 0.23939801253912151857 -0.19385044124752032202 0.79602519382827419125 -0.69559878164156563329 -0.38320350650508833157 0.76104313198069661883 -0.81815609946680933895 0.19519769362831068671 -0.91904291368169077625 -0.3636327442882844041 -0.23462617076912517522 0.1359281641967749199 0.30245950409684180249 0.29723526255530285933 -0.9606099545775846904 -0.094929307330663778575 -0.97945026235616583499 1.5046237097352861412 -1.019379006049942582 0.66278415341198138044 -1.0823545785857560109 -0.13621220936606415197 0.67747113793869240261 -1.0054735002724020099 -0.29225753058051640032 0.62219514908467310477 0.7091343451558677069;0.46805618305392682199 0.31673066297595747765 0.083292265548624871974 0.74211989994436655671 0.45644088067863242131 -0.70262774677710015947 -0.29587571584329036556 -0.098962835874636834177 -0.69163402804932339052 -0.27503928848798586682 0.24558101339879673253 1.1791731428944092208 0.60647341782967378876 0.77308968678084144521 0.3320764568187272725 -0.94034648065518811055 -0.40362909031636040602 0.74453741923149485693 -0.69113361348980228982 -0.66806016920884581101 -1.0725642219961717405 0.60432204048317195166 -0.042096696087059640168 -0.96989093753317789925 -1.2178097980925248756 0.0030583018509540010887 0.57869850848708803692 1.2817923372141497573 -0.23570035987637844022 0.30240490610426751239 -0.31330432667264118685 0.83027812807540402051 -1.4224620178494127298 -1.0291165608126746633 -0.4484032032961571268 -0.30020470514825509101 0.60293593744156215308 -0.31692633243434642498 -0.63674657482256979968 -0.25318462556774024019 0.32708791978333090489 -0.54386452984051814052 -0.039549805565617733583 0.97987999697154926082 0.054549848148016583105;-0.35888112264179933275 -0.7871533177213979604 0.34827825326947819962 -1.0088677477653005266 0.088052779082799070842 0.39317778380215084866 1.0070823308923144701 -0.22360412532808068842 0.3810347893850890566 -0.6227024581911372314 -0.7432763245298044108 0.49262247128917868721 0.095490476770525023475 -1.2457997177651589649 -0.7613955517953503449 1.2699533859056646445 0.77326384139888726388 0.95334019433607131155 0.68703854571051536926 -0.89123865291343229433 -0.27323484630103084259 -0.59544419916904067769 -0.42978357949482137723 0.63151459756159689096 -0.36296116744775019924 0.12191341589287524316 -0.34167707806607156007 0.96862463722575498082 0.68737784988723671376 -0.62935816721311776956 1.0894927065014057277 -0.03925545499778412134 -0.17364510703619639997 0.33686037317712103079 0.14938848896365816699 -0.32597129376537353762 1.1624080575524182724 0.69594036027750638684 0.38812141913646042157 0.14292346757865972973 -0.2098601251903390863 0.6024359150075859759 -1.0365471312173684115 -0.5740458757456383676 -0.43347134434421574767;0.4023945393728457498 0.80637584770905867959 0.21005384173971125561 -0.52337356408217650117 -0.65823326101959422907 -0.37356996427006222694 -0.17916594100257696165 -0.030264449071520614643 0.94483778717072808284 0.63575648506210369337 -0.17763238916467888329 -0.10473663901724274139 -1.2482816307072870377 -0.39668860828830782017 1.1811760325959723694 -1.118984025021287021 0.45874024016743386589 -1.3656758566261435472 0.20092623845840637542 -1.2905902614243225379 0.41620405533642274021 -0.19741983664592158143 0.060694833934512644469 -0.1874470933376703452 0.20472570648413968009 -0.7277615730614370726 -0.17138589376898971661 0.094892210963478856867 0.59797828509913864004 -1.0424607614302783265 -0.83992299859571561971 -0.59272885100953665027 0.64992483142098733673 -0.4215181152971448908 0.92794221642305585451 1.0968515281851345389 -0.29510520978658494329 -0.62698189106309976104 0.99160147893698846744 -0.4934986886472111367 -0.012320790083116458027 0.71315836808412380599 -0.56063348033705218132 0.38603014372375138441 -0.68075962305923487516;-0.50009058434788544734 0.50913096550883241154 0.1493043769929673914 -0.60406112720936855354 0.63068148328249618029 0.49102177215645037567 0.81517001888593609848 0.32351758656122453495 -0.70650433569868964501 -0.2001926660509352196 0.05369182248117129741 -0.81610098722286505968 0.13164920978357866344 -0.0052486574273996073475 -0.65320264602744160243 -0.82740948671110436941 0.46915484310942234814 -0.050604026194869311528 0.012211455319485087223 0.65267261432223766526 -0.75354951517984314346 -0.23154988011198573972 -0.65954214737470240326 0.57611739373586645652 0.12060277075001066271 -0.79102004764206523824 -0.87698423091779631466 -1.6254505319887790904 1.6176007804241967492 -0.72136454793939308594 0.73629855102226993147 1.5219584561423471492 0.024108176749949396245 -0.90527613573490828269 0.29052693788444428069 0.38437883571459019461 -0.17525195302308643752 -1.0655348602331171648 -0.75873029534613767311 0.53293989923856610602 1.0579794330330551944 -0.061332102461045839847 -0.62634720369976604193 -0.42676246290603681022 -0.55127144893345936261;0.45841905871383775706 0.034995009163046694733 -0.34291548190153525733 -0.26657443809667519252 0.56791484053345797633 0.11648192070519823582 -0.32032534652974253842 -0.14751742264677697447 0.43361110244330608454 0.23031739390448952021 0.27982210598156714854 0.31667291341571174312 0.79613684154335484511 -0.75043282676716982493 -0.34184114259811004821 0.025196098470143181436 0.56873142539444265786 -1.3009819521071359638 1.0268431834315145945 0.18045559191821103351 -0.048738913021189739228 0.6671544456390861022 -0.23593809241104921059 0.15082811148251126787 0.23691435518988204767 -0.44983036307888668581 -0.94335944238486135749 0.63645435340211042874 -0.62858705079155241524 -0.77427091168072359473 0.71797770510020875179 0.14743175454571738614 -1.024205018995889116 1.2063062172711229714 0.67991953745484934313 -0.070775970995981055123 -0.56156048024293170329 0.59116430660366758865 0.93299016858203076552 -0.4506817830388252788 0.70084057279360756354 -0.55717511151437237871 -0.52992591507709929655 0.13057310592481707889 -0.88103977994100712845;0.18202257316093464756 0.39065348398822474785 0.53231024079307542873 0.62332920920309287105 0.39024446271162810396 0.51974342576622667433 -0.4641989576633988035 -0.61057543566864780349 -1.2453322874057386471 -0.8853600752423134157 -1.0227111484797553054 -0.60817011571088341881 -1.1997976288580325388 -0.49759553215358259814 0.88304282199259265251 0.55923828460405444751 0.13406232716327420862 0.060308439953289549873 -1.0970867711519951548 -0.47002792605703735962 0.5268427869032834554 0.95431860760943232336 0.97538762120943689471 -0.59977228315706720974 -0.42058224573538727231 -0.18871072780940884028 0.031170972753074357997 0.61801621443907928111 0.75300216075852710595 -0.51387677634972783736 -0.18110961390203803023 -0.20469368195728906978 -0.8503795485778081753 0.48106337908728724617 -0.85484626352333303867 0.19571351563628702763 -0.10553817238586071792 -0.65693838928769532348 0.027451317415659984983 0.47309260935110702961 -0.032878338863175919637 0.18491370027110770602 0.38641113304367086245 -0.18948183293850526243 0.82026393440405942492;-0.1803822443389040131 -0.37882942495475491196 -0.054585398236596791022 0.1586272074012335942 -0.23040461935510375691 0.5201081957234854336 0.710953489647362602 0.75206445465849269816 0.4849777454258742404 -0.51202107176243283337 -0.22633990493192751581 -0.67274393632292417422 0.077744383178278989033 -0.80471253413506371732 -0.96967402094812693569 -1.2666271969528724028 0.78571691157950873663 0.94171034612265858144 -0.35481844633690035051 0.0059141896513678141045 0.16548981633744383468 0.7279673922576437306 -0.090477528966156670065 -0.22430463122812627219 -0.66235153734575913376 0.11384445442349448718 0.56056519613549093961 0.16334747236075805588 0.64597074744410964975 -0.11890638069406048172 -0.18978629497144042237 -0.53264544418669912407 -0.075729180376898255767 -0.4747647962130196464 0.87667292491862514048 -0.69409025150625636158 -0.40294923548572852967 -0.36125757756902870943 -1.2353622690105736659 0.076913627533469031139 -0.54887566121329012248 -0.090024404284280518107 0.57064454493904082089 -0.78648463400029944292 0.78519244370782825815;0.0068383779954340985149 0.88701775345572198006 0.43813737117969819845 -0.57801623686593206486 0.31090461714984957142 -0.66966177423752115683 -0.36689607282129971244 0.65159010013755480628 0.96988719055607608421 0.149846172837529934 -1.1905662452459147005 0.060542277351815637632 -0.96565722310114943117 -0.11680325163622584661 0.93693227596959827164 0.097994011797002025799 0.094484476586698146194 0.18538137080932201584 -0.41439122794832894403 -0.31961391112458042985 -0.55898104781337110136 1.1464267926809408316 0.47415694696617216586 -0.050036946287423021695 0.51252230178032909258 -0.26606503474147202848 -0.37710201091819289809 0.50674558960035820387 1.2738264674511925456 -0.65449957814108772336 -0.65756414705521804009 1.0757206979487323739 0.33459639040036198709 0.95568431223262928498 -0.581948587883407642 -0.22525174997927152609 0.68716560047829466917 0.48969252185219580564 0.80100637165871035883 0.38696605556357033251 -0.92006909469993725104 -0.16090660102689291477 0.38678166383609796641 -0.58732538649276533338 -0.16532372803107628356;0.46345669589508758923 0.46947901566271754703 -1.0146642303070914082 -0.11608510892295817452 0.45157406473347433407 0.68902064350537939319 1.0459221444256925349 0.27856467948916169286 -0.43509627992164995325 -0.5670411019293509769 -0.28978085227325728335 0.99624405384424186138 -0.2546037693678036562 1.538644373146141886 -0.90889271395823789668 0.045191679092869412038 -0.02791777771519282289 0.098221490423605326003 0.82309206215144326002 -0.75961749914080756163 -1.004430509490493284 0.03940686059355114762 -1.4641484270385562994 0.44114126176093065856 -1.2992541966314505864 0.67728151636388178591 0.51162066306474285327 -0.79635094359809910358 0.24478602744920024969 -0.33688711132273191362 -1.1482097490983671495 -0.52649392606595024624 0.421742033781049519 -1.0476509434308916013 -0.96091429080311141497 -0.47131222659261262642 -0.092590517536761257622 -0.76082402005315630245 0.75772616156812866439 0.39481959417019157899 -0.68875318307424071573 1.0466315837330921745 -0.92739245310287321544 0.95969445290504296064 -0.26165954373521610465;0.05162436130725402833 0.033816421078592347194 -0.44048161773004546049 -0.53964433074901796417 -1.0155585995932465693 0.16950595262335058089 -0.23229359006964536705 0.2117212255501193241 -1.5879743962518939604 0.60221730792245531383 -0.26121337625171037189 0.1034443114916745593 -0.58070658591133372806 0.22903269026301181777 1.1743404527385561398 -0.38240173893945617056 0.383565655407651529 0.1238756581053233885 -1.0301760201952709917 -0.40610327588739308924 0.00084353022057681234513 0.8050273073751125219 -0.025597007825320906849 -0.72981992633118031311 0.44892758620905892641 0.53208361694667860586 0.25187469928311129186 -0.1280652759340935587 -1.2266580942704217172 0.20038201753729331656 -0.95874667770211918771 -1.0977469485379343084 -1.3403766682961639756 0.52979189948736882254 0.7950180890862763583 0.40287791659603283678 -0.013249678023393253457 0.38697613655691709411 -0.57518664106136574432 0.35926939394552925844 -0.56472790406742678915 0.2605209838222754537 0.30747747966003802222 -0.1079828474920969672 1.1534521363343759326;0.28720346907867383424 -0.55278460845619359354 0.08295035730202600377 -0.67056485140633759201 1.0716662937523646626 -0.49736250056565645128 -0.41646495116119941482 0.76047637278245006076 -0.3605309166550439981 -0.72201420251614201185 0.18056242286901355576 -0.36645388503380837975 -0.74315493442153557346 1.2488450597904425798 0.75216756000515028191 -0.48759877595146006168 -0.10598806300942059666 -0.28253219605674645409 -0.058961545376725051082 -0.78487291613217824437 -0.39320835164405643081 -0.43244176059002148449 -1.1600925911436961169 0.87951851260075930572 0.76605445632493407437 -0.60893922490139351655 -0.19769294817473173631 -0.65415261940511137961 -1.1250024743144284578 0.15864391937737926108 -1.0693824671857983244 -1.3697095868142694641 -0.41468894528130029187 0.57235053908054733807 0.56138264654716452107 -0.73862653344192730209 -0.821675500666522729 0.21222455871272399852 1.0188815104456585559 -0.79523283532067923218 0.62000128351305150431 0.9000947142209401175 1.9145840942538752127 -0.35452323404937952089 -0.1831775006675068207;0.76995602898697956817 -0.21541765288870518003 -0.36772285398307069659 -0.069069425093485542488 -0.62581338256981011714 -0.86398347584373935693 -0.34035587097641262222 -0.47109276091599877612 1.0993948491000760104 0.63846562128199735309 0.56137891216680990691 0.59471103116856316451 0.42538453333549453017 1.4845051600219902888 -0.44928817819101996012 0.56738082210055840182 0.38657083192969776686 0.52858121428254367657 0.99198763516022925302 -0.49327089145788954871 1.500178236938770171 -0.58363518488357069014 0.26506867483804791297 -1.1045416386688633459 -0.92125855739928319554 0.78945508551903909034 0.44284773544280281454 -0.94577135531130718249 1.2088756557230644351 0.3084289495928275171 0.07419601706559925125 0.40538455031869541356 0.47716162744099011039 1.0772168335310330356 0.37040095973815467811 -0.66527391442875138949 -0.61571383558927872404 -0.74534693489565384539 0.33964311329240481907 0.087058592233347872891 0.48458799392146517659 0.61309631998756930482 -0.074866304878240863552 1.1349449287314412604 -0.78943232150682507431;0.66791497229224439103 0.2270542429411213925 -0.28487440867185942484 -0.28128415016770580426 0.48648536404894349161 0.48090978328206573922 0.19504236675923780631 1.2676560483041576788 -0.37302788923157903511 -0.62156544129888846584 0.33029363560333796501 0.36470658927037125085 1.0581957375605035576 0.22793639753011241122 -0.61312569196212252098 0.5500012122406384707 0.52733116429294502048 0.9398662984811060328 1.3116673755029149007 -0.90538351994258647881 0.075573562525444240578 -0.4078239772846746769 0.96787271154330134504 -0.25004577457331306212 0.56728567283311825964 -0.9948124672892241227 -0.54935814564799312354 -1.2265531183180178321 -0.41884819194756700567 0.25931099200597362842 0.32262957666163177839 0.84793737157624538003 -0.41188067102932118813 -0.26232580393462517909 0.42360583820970387769 0.65302445722159352393 0.14255877570934161191 -0.41869090645578038723 0.5981305526269841133 0.40847130311277779491 -0.19458718816209799596 -0.28800761596667528996 -0.72870557393318757811 -0.87735861589716412912 -0.17252746659804782392;0.26414662758874818405 -0.21554235416127590086 -1.0491528765307920334 -0.31959213656286200589 -0.18625444320682846278 0.66258344602991015027 0.77773759722431068386 -0.12215294629820709627 -0.7317712403493541462 -0.083378694023440891314 -1.0572751276844460921 -0.32424971783840039752 0.52336378157192675609 -0.76213765639651231965 0.33259654350287531921 -0.88937160537762516288 -0.02316370790556215864 -0.22210690388526763139 -0.57828787021939631607 0.70454129840084511738 0.060500093156191758759 0.62010217462154992862 -0.54149831665859837759 0.022299644423656499181 -0.82847336397100290739 0.95989935408458004762 1.1991938336381402497 0.66290474071012417401 -0.1491166797112277731 0.37014264878510155787 0.57952096438038580573 -0.13024857940206685525 -0.15275220376785714205 -0.64338065793903165268 0.99313539675968320886 0.35373964405094765473 0.18962731729186377283 0.70345030989473766869 0.61912707024111768295 0.2948750655355892869 -0.017237317179385175381 -0.3704708580704874632 0.92876697612301883922 0.90369941908455653223 -0.28665075916361787423;0.37153613719150724304 0.011906469714169242227 1.3755573795144870886 0.027962287667646266998 0.81661420333986245446 -0.31555584897764221708 -1.585954152687844676 0.83153630935648725764 0.87082133764096425477 -0.31633493372050974779 0.097536016090660052069 0.66836646583729619753 -0.49932186291578073423 0.63003616983787580352 0.86768179719229943103 1.2890307833119480918 0.061238505174745737347 0.41594966607308392348 -0.49154587219319945124 -0.80391107209705414682 -0.08237369431588920099 0.78649358360342092045 -1.1926508747457023052 -0.80719344191437303326 0.76552408703314489546 0.29917163608240582295 -0.15643059683577734131 1.2628871453089998145 -0.030863532423106430913 0.10084027030920514334 -1.1528269431464919226 1.5018391129596202482 -0.28018270047053961402 -0.69785832268612713047 -0.11111730842485170734 0.64162099836216501814 -0.58544215764701890148 0.73411079225263908832 -1.1107733840172071549 -0.12917115344327753657 0.086990502015976162165 -0.10072919743031058526 -1.057455007467845931 0.13634687471855100327 0.49838805498248500703;-0.59235287393976532311 0.17870147422280208138 -0.42710977038723652033 0.054507553811461072202 0.096223144013609582248 0.72961669527554851022 0.87903213549936287663 -0.57403855764517719429 -0.82077415838204892395 0.53507055763070177079 0.59937293874753794221 -0.4581570420123607934 -1.0110949906825097422 0.55587469106809650476 0.58632211213100160485 -0.10794607304816318527 -1.2049154601597145131 -1.1570663354962116287 0.1503337110756110262 0.24319801545473307414 0.59114526835869607435 1.1719259250363507352 1.1500184643794006956 -0.13800212703652614543 0.48720580817544156815 0.32031392247255519035 -0.15516581256179612369 -1.1448042037829504469 1.1537276600001007409 -0.9260729101453784029 0.44504175514109267642 -0.50218613376372078783 -0.62809279083537161714 -0.42322697682908927419 0.57743780757884244359 -0.78246340066517849898 -0.24194097765500202635 1.1015424313655450828 -0.023989655564526563003 -0.082376028992453040334 0.20388734172261224753 -0.88547010043976615012 0.51744510609582294869 0.50676908958716526676 -0.75055208096747461077;0.15039677820712735179 0.76839764132630739013 0.2077349658901546936 0.15810940610588697375 -0.99220343361186846831 0.58188040977577415447 0.6122978268345655728 0.084556042479784654375 -0.1887867163322529962 -0.21271706785640781545 -0.18235217614559620647 1.391985614651348957 -0.30232665349363124774 -0.84255151129475902572 -0.87448603521713952347 0.67519698175008446839 0.56964916646610952444 0.66206673048752995303 -0.33198388395869810052 -1.2435634149203471654 -0.34380264908438973315 0.83939975907425623536 0.30290408968488541364 -0.62800185671964314782 0.70551204356196650647 -0.1997587523624687611 -0.75146991922702077726 1.1237366881435351118 0.58365793425848977449 -0.70005746724758044497 0.77987850815830439544 -0.43441309517033999121 -1.0769563201115768258 -0.5792839178562894098 -0.20301131872477723439 0.5002701316663814568 -0.31172043496640244875 0.52809258912310963474 0.7093407460279617105 -0.19807582168798687494 0.38155265159867512992 0.4665768997638302662 0.23537579508886585788 0.90206740713939748133 -1.1256493542578827061;-0.52889452952145510345 0.72359948854356070935 -0.39700589279664300069 -1.1700244913588480067 -0.22483713711479272335 0.22347202455163872603 0.33655816150304518342 0.12777877187322128627 -0.05594952909600742208 1.0161697601164250138 -0.51479690788485710229 0.41101920307043671166 -0.48734314152216928751 1.2135147051204271396 0.090263557332484561924 -1.467572839693843223 0.27093899330888776555 -1.1262646701062581922 0.17230766641701752984 0.21392081713398197751 0.12125934656526297928 0.18724028200055248261 -0.96767841292172196432 -0.67609249441170016226 0.40475055924606212487 0.50717619563680960137 1.707425014084050563 -0.52327034926742632681 0.092828251039733578054 -0.90092523665684365319 -1.2911289514929087385 0.70584501782087516464 0.92637397223760487019 -0.045393615143319548944 -1.2996574296772906987 0.011030225882396009832 0.078376398281188752737 -0.53761302207483097071 0.81383978068697826469 0.81393660863025030228 0.88063278512004528054 1.0273467452584315041 0.33595409116436342201 -0.48025597034267930585 0.55411507955420724603;-0.28571507418836517012 0.42850421074276145994 -1.0468794511164460914 -0.2900663129959337172 -0.27147082743287132001 0.82694892906820449685 0.92715374711144749043 0.32073079314597241485 0.19111084399490979591 0.5649670677395849383 1.1154636532869417476 -0.33000008577041156643 0.56256982857296100597 -0.031861114402078678787 0.67486764191578185734 1.0462314493036599661 0.14659461577018745304 -0.32040276051787253131 1.1199571612873093773 0.42105074710858586551 -0.44835092997861436537 -0.031874216668752577974 0.52614063690549639496 0.40809159904103414762 0.38575530767172527824 -0.66669462536487777982 -0.8145479252132558079 0.60345038617480417642 -0.79546149769059659729 -0.96981343793684327004 0.57802608045639836121 -0.47300922749756918462 -0.0086851591262810876048 0.056879219719084744833 0.12642891061200053904 -0.84429616565856291377 0.94295931427131396418 0.37343126906651397112 -0.70977581573930426107 0.27050217958833916443 -0.65628327139601416729 -0.50390570726541017432 0.16547801807215334335 -0.44740843769032512256 0.78788381553826691839;-0.66776492926772157421 -0.59866983001531670627 -0.14314915572337966188 0.037141699157428466338 0.71994036825261154 0.64400612479271757138 0.19904052007406575209 -0.58249159616863421807 -0.69742008908177288706 0.26399211828082713716 0.42313922947339754899 -0.092461179145366639842 -0.85067179538892212509 -0.098916300328441605916 -0.47337214677988331823 -0.84083946546757060148 0.30193103672177468155 1.0158829506387867525 -0.85842177665689578525 0.05822235575608384478 0.44989300806299165059 0.90199371858183019501 0.4408230517346242161 -0.65879988646569476174 -0.69445822788058353403 0.16532741881694032471 0.85762652078615186912 -0.56350989859809796911 1.0239018315574750506 -0.38514437142701091199 0.81246111424132005929 -0.65811957525210063036 -1.1083706784523985611 0.90248619595439205643 0.55501576012150499739 0.29422719153111565049 0.54454514819908450551 -0.12962403662616889255 -0.23936419270766101652 0.33791788221481872112 -0.84267198397138898258 -0.052930293253686963584 0.16187499798723800626 -0.56257748552040742762 -0.33076577766315617968;-0.80931291348127554208 0.30217216045312245143 -0.57916098910678204259 0.48053672533366587061 0.0033675534968501900229 0.79272346150479489069 -0.95751121667389460512 0.51644328098074965272 -0.61710219660079235204 0.046066812533854556433 -0.07496881841305923222 1.3500837970317882686 0.37013000715029625853 0.13605238056009982817 0.088792725210351947096 0.97417463156747585717 0.62471085982498641975 0.89803186703971982219 0.7324819267899758124 0.43503165112781211343 -1.1058780464152380141 -0.44737328625499561685 0.78306555464181959447 -0.92354043258992091214 0.15172717302345101187 -0.80971383671606889099 -0.44733970308394049864 0.070357854292395549667 0.59617709792221518228 -0.30515260438886876448 -0.48735054550452505673 0.29040749082887745702 0.2637002060073004861 -0.031839313090544975327 -1.0991414362683307182 -0.55286307426625602712 -0.43228055060672931909 -0.54547257167133378353 0.62229955217566912395 -0.080163968946914673785 -0.20762058401691108056 -0.67854096049099854593 -0.54071552133701961118 0.60881789427881760624 0.64278367087754506581;-0.25116407290333186975 0.59690830056684618388 1.1414961042215472364 -0.42221895159890032723 -0.26756411546180997041 -0.13825701645355595315 -0.55230358514518484991 -0.52171495516267063497 1.1441157405175994555 -0.47852401738239802587 0.90810860374858748401 0.9569636970092948447 1.3956360341894251675 0.92903253841578459227 0.077044553923722475242 -0.4552236603064422904 -0.37788552948160863965 0.6066671692335605659 -0.54685254202727928696 0.092331879755931420273 -0.32855677475040989677 -0.3428086772022135853 -0.8338129897403593338 -0.5592334527096187724 1.1255388148013072414 0.23529402935487059301 -0.54541048361822386248 0.42493118360162374092 -0.59215514518850576042 -0.54752499378263219665 -0.80352054892268776065 0.90694738502529992363 0.15494717403084545815 1.2381320437407306034 0.30041466903523045273 -0.36955311247732980373 -0.89701396012659395662 -0.76794344371364275936 -1.0544038264217447942 0.3582879929764036242 0.48160227755109225045 0.57753422998831860369 -0.29636194823408817944 -0.33108590730499543042 -0.77172494666317859036];
  
  % ===== SIMULATION ========
  
  % Dimensions
  Q = size(x1,2); % samples
  
  % Input 1
  xp1 = mapminmax_apply(x1,x1_step1_gain,x1_step1_xoffset,x1_step1_ymin);
  
  % Layer 1
  a1 = tansig_apply(repmat(b1,1,Q) + IW1_1*xp1);
  
  % Layer 2
  a2 = softmax_apply(repmat(b2,1,Q) + LW2_1*a1);
  
  % Output 1
  y1 = a2;
end

% ===== MODULE FUNCTIONS ========

% Map Minimum and Maximum Input Processing Function
function y = mapminmax_apply(x,settings_gain,settings_xoffset,settings_ymin)
  y = bsxfun(@minus,x,settings_xoffset);
  y = bsxfun(@times,y,settings_gain);
  y = bsxfun(@plus,y,settings_ymin);
end

% Competitive Soft Transfer Function
function a = softmax_apply(n)
  nmax = max(n,[],1);
  n = bsxfun(@minus,n,nmax);
  numer = exp(n);
  denom = sum(numer,1); 
  denom(denom == 0) = 1;
  a = bsxfun(@rdivide,numer,denom);
end

% Sigmoid Symmetric Transfer Function
function a = tansig_apply(n)
  a = 2 ./ (1 + exp(-2*n)) - 1;
end
